{
  "phase": 502,
  "seed": 502,
  "tier": 3,
  "n_mathematical_systems": 8,
  "n_sfhsgp_components": 7,
  "n_null_permutations": 1000,
  "sfhsgp_components": {
    "emergence_hierarchy": [
      0.9285,
      0.9283,
      0.9279,
      0.9244,
      0.9225,
      0.9031,
      0.8864
    ],
    "operator_weights": [
      0.52,
      0.32,
      0.16
    ],
    "sector_bases": [
      0.9285,
      0.9283,
      0.9279,
      0.9244,
      0.9225,
      0.9031,
      0.8864
    ],
    "depth_hierarchy": [
      0.4828,
      0.44243333333333335,
      0.4020666666666667,
      0.3617,
      0.32133333333333336,
      0.2809666666666667,
      0.2406
    ],
    "attractor_signatures": [
      0.9285039677315393,
      0.9279271865233152,
      0.928616231478452,
      0.9246691101953612,
      0.9223701322584854,
      0.903129116625307,
      0.8860595291343916
    ],
    "information_channels": [
      0.9283,
      0.9244,
      0.8864,
      0.9285,
      0.9279,
      0.92635,
      0.90735
    ],
    "algebraic_constraints": [
      0.9991391369848273,
      1.0460897002479153,
      1.021481563503488,
      0.04149999999999998,
      0.038000000000000034,
      0.92635,
      0.0006000000000000449
    ]
  },
  "systems_localization": {
    "RenormalizationGroup": {
      "emergence_hierarchy": {
        "rho": 1.0,
        "p": 0.0,
        "tau": 1.0
      },
      "operator_weights": {
        "rho": 1.0,
        "p": 0.0,
        "tau": 1.0
      },
      "sector_bases": {
        "rho": 1.0,
        "p": 0.0,
        "tau": 1.0
      },
      "depth_hierarchy": {
        "rho": 1.0,
        "p": 0.0,
        "tau": 1.0
      },
      "attractor_signatures": {
        "rho": 0.8928571428571429,
        "p": 0.006807187408935392,
        "tau": 0.8095238095238096
      },
      "information_channels": {
        "rho": 0.21428571428571433,
        "p": 0.6445115810207203,
        "tau": 0.23809523809523814
      },
      "algebraic_constraints": {
        "rho": 0.7857142857142859,
        "p": 0.03623846267982713,
        "tau": 0.6190476190476191
      }
    },
    "CategoryTheory": {
      "emergence_hierarchy": {
        "rho": 1.0,
        "p": 0.0,
        "tau": 1.0
      },
      "operator_weights": {
        "rho": 1.0,
        "p": 0.0,
        "tau": 1.0
      },
      "sector_bases": {
        "rho": 1.0,
        "p": 0.0,
        "tau": 1.0
      },
      "depth_hierarchy": {
        "rho": 1.0,
        "p": 0.0,
        "tau": 1.0
      },
      "attractor_signatures": {
        "rho": 0.8928571428571429,
        "p": 0.006807187408935392,
        "tau": 0.8095238095238096
      },
      "information_channels": {
        "rho": 0.21428571428571433,
        "p": 0.6445115810207203,
        "tau": 0.23809523809523814
      },
      "algebraic_constraints": {
        "rho": 0.7857142857142859,
        "p": 0.03623846267982713,
        "tau": 0.6190476190476191
      }
    },
    "TensorSystems": {
      "emergence_hierarchy": {
        "rho": 1.0,
        "p": 0.0,
        "tau": 1.0
      },
      "operator_weights": {
        "rho": 1.0,
        "p": 0.0,
        "tau": 1.0
      },
      "sector_bases": {
        "rho": 1.0,
        "p": 0.0,
        "tau": 1.0
      },
      "depth_hierarchy": {
        "rho": 1.0,
        "p": 0.0,
        "tau": 1.0
      },
      "attractor_signatures": {
        "rho": 0.8928571428571429,
        "p": 0.006807187408935392,
        "tau": 0.8095238095238096
      },
      "information_channels": {
        "rho": 0.21428571428571433,
        "p": 0.6445115810207203,
        "tau": 0.23809523809523814
      },
      "algebraic_constraints": {
        "rho": 0.7857142857142859,
        "p": 0.03623846267982713,
        "tau": 0.6190476190476191
      }
    },
    "GraphDynamics": {
      "emergence_hierarchy": {
        "rho": 0.2702812388086677,
        "p": 0.5577307488053698,
        "tau": 0.19518001458970663
      },
      "operator_weights": {
        "rho": 0.8660254037844387,
        "p": 0.3333333333333332,
        "tau": 0.816496580927726
      },
      "sector_bases": {
        "rho": 0.2702812388086677,
        "p": 0.5577307488053698,
        "tau": 0.19518001458970663
      },
      "depth_hierarchy": {
        "rho": 0.2702812388086677,
        "p": 0.5577307488053698,
        "tau": 0.19518001458970663
      },
      "attractor_signatures": {
        "rho": 0.09009374626955591,
        "p": 0.8476720796198265,
        "tau": 0.0
      },
      "information_channels": {
        "rho": 0.702731220902536,
        "p": 0.07823745383207154,
        "tau": 0.5855400437691199
      },
      "algebraic_constraints": {
        "rho": -0.21622499104693418,
        "p": 0.6414455093539175,
        "tau": -0.09759000729485331
      }
    },
    "Topology": {
      "emergence_hierarchy": {
        "rho": 0.0,
        "p": 1.0,
        "tau": 0.0
      },
      "operator_weights": {
        "rho": -1.0,
        "p": 0.0,
        "tau": -1.0
      },
      "sector_bases": {
        "rho": 0.0,
        "p": 1.0,
        "tau": 0.0
      },
      "depth_hierarchy": {
        "rho": 0.0,
        "p": 1.0,
        "tau": 0.0
      },
      "attractor_signatures": {
        "rho": 0.22026692946430576,
        "p": 0.6350680847339085,
        "tau": 0.2057377999494559
      },
      "information_channels": {
        "rho": 0.23862250691966458,
        "p": 0.6063359507196038,
        "tau": 0.2057377999494559
      },
      "algebraic_constraints": {
        "rho": 0.01835557745535881,
        "p": 0.9688438531858712,
        "tau": 0.0
      }
    },
    "InformationGeometry": {
      "emergence_hierarchy": {
        "rho": 0.07142857142857144,
        "p": 0.8790481931481541,
        "tau": 0.04761904761904762
      },
      "operator_weights": {
        "rho": 0.5,
        "p": 0.6666666666666667,
        "tau": 0.33333333333333337
      },
      "sector_bases": {
        "rho": 0.07142857142857144,
        "p": 0.8790481931481541,
        "tau": 0.04761904761904762
      },
      "depth_hierarchy": {
        "rho": 0.07142857142857144,
        "p": 0.8790481931481541,
        "tau": 0.04761904761904762
      },
      "attractor_signatures": {
        "rho": -0.1785714285714286,
        "p": 0.7016579425162729,
        "tau": -0.14285714285714288
      },
      "information_channels": {
        "rho": -0.10714285714285716,
        "p": 0.8191508555699912,
        "tau": -0.14285714285714288
      },
      "algebraic_constraints": {
        "rho": -0.1785714285714286,
        "p": 0.7016579425162729,
        "tau": -0.14285714285714288
      }
    },
    "AttractorSystems": {
      "emergence_hierarchy": {
        "rho": 0.9642857142857145,
        "p": 0.0004541491691941689,
        "tau": 0.9047619047619049
      },
      "operator_weights": {
        "rho": 0.5,
        "p": 0.6666666666666667,
        "tau": 0.33333333333333337
      },
      "sector_bases": {
        "rho": 0.9642857142857145,
        "p": 0.0004541491691941689,
        "tau": 0.9047619047619049
      },
      "depth_hierarchy": {
        "rho": 0.9642857142857145,
        "p": 0.0004541491691941689,
        "tau": 0.9047619047619049
      },
      "attractor_signatures": {
        "rho": 0.8571428571428573,
        "p": 0.01369732661532562,
        "tau": 0.7142857142857143
      },
      "information_channels": {
        "rho": 0.10714285714285716,
        "p": 0.8191508555699912,
        "tau": 0.14285714285714288
      },
      "algebraic_constraints": {
        "rho": 0.8571428571428573,
        "p": 0.01369732661532562,
        "tau": 0.7142857142857143
      }
    },
    "AlgebraicRecursion": {
      "emergence_hierarchy": {
        "rho": 0.9910312089651149,
        "p": 1.4561252916129422e-05,
        "tau": 0.9759000729485332
      },
      "operator_weights": {
        "rho": 0.8660254037844387,
        "p": 0.3333333333333332,
        "tau": 0.816496580927726
      },
      "sector_bases": {
        "rho": 0.9910312089651149,
        "p": 1.4561252916129422e-05,
        "tau": 0.9759000729485332
      },
      "depth_hierarchy": {
        "rho": 0.9910312089651149,
        "p": 1.4561252916129422e-05,
        "tau": 0.9759000729485332
      },
      "attractor_signatures": {
        "rho": 0.9369749612033814,
        "p": 0.0018510301964418906,
        "tau": 0.8783100656536799
      },
      "information_channels": {
        "rho": 0.18018749253911182,
        "p": 0.6990457740939315,
        "tau": 0.19518001458970663
      },
      "algebraic_constraints": {
        "rho": 0.7748062179181807,
        "p": 0.04076946252042033,
        "tau": 0.5855400437691199
      }
    }
  },
  "null_distributions": {
    "emergence_hierarchy": {
      "rho": [
        0.642857142857143,
        0.07142857142857144,
        -0.1785714285714286,
        -0.5714285714285715,
        -0.07142857142857144,
        0.3571428571428572,
        -0.39285714285714296,
        -0.5714285714285715,
        0.14285714285714288,
        0.8571428571428573,
        0.3571428571428572,
        0.42857142857142866,
        -0.9285714285714288,
        -0.10714285714285716,
        0.10714285714285716,
        0.6785714285714287,
        -0.7142857142857144,
        -0.5,
        0.42857142857142866,
        -0.9285714285714288,
        0.1785714285714286,
        -0.7857142857142859,
        -0.21428571428571433,
        0.0,
        0.3571428571428572,
        -0.4642857142857144,
        0.7142857142857144,
        0.10714285714285716,
        0.3571428571428572,
        0.3214285714285715,
        -0.42857142857142866,
        -0.42857142857142866,
        0.6071428571428572,
        0.642857142857143,
        -0.642857142857143,
        0.28571428571428575,
        -0.5,
        0.5,
        0.0,
        0.3214285714285715,
        -0.14285714285714288,
        0.3214285714285715,
        -0.1785714285714286,
        0.28571428571428575,
        -0.03571428571428572,
        -0.1785714285714286,
        -0.42857142857142866,
        0.21428571428571433,
        0.03571428571428572,
        -0.6785714285714287,
        -0.21428571428571433,
        -0.5,
        -0.03571428571428572,
        0.642857142857143,
        -0.03571428571428572,
        0.0,
        0.39285714285714296,
        -0.7142857142857144,
        -0.14285714285714288,
        0.07142857142857144,
        -0.4642857142857144,
        0.14285714285714288,
        -0.28571428571428575,
        -0.07142857142857144,
        0.14285714285714288,
        -0.3571428571428572,
        0.642857142857143,
        -0.21428571428571433,
        -0.28571428571428575,
        -0.21428571428571433,
        0.39285714285714296,
        -0.28571428571428575,
        0.3571428571428572,
        -0.7142857142857144,
        0.6785714285714287,
        -0.642857142857143,
        -0.28571428571428575,
        -0.14285714285714288,
        0.1785714285714286,
        0.0,
        -0.03571428571428572,
        -0.03571428571428572,
        0.14285714285714288,
        0.6785714285714287,
        -0.5357142857142858,
        -0.25,
        0.28571428571428575,
        -0.3214285714285715,
        0.8214285714285715,
        -0.25,
        0.42857142857142866,
        -0.3571428571428572,
        -0.4642857142857144,
        0.5357142857142858,
        -0.4642857142857144,
        0.39285714285714296,
        -0.10714285714285716,
        -0.642857142857143,
        0.5357142857142858,
        -0.21428571428571433,
        -0.07142857142857144,
        -0.1785714285714286,
        -0.642857142857143,
        -0.4642857142857144,
        -0.14285714285714288,
        0.3571428571428572,
        -0.28571428571428575,
        -0.3214285714285715,
        -0.14285714285714288,
        0.10714285714285716,
        -0.10714285714285716,
        -0.25,
        -0.1785714285714286,
        0.28571428571428575,
        0.3214285714285715,
        -0.3571428571428572,
        -0.1785714285714286,
        0.0,
        -0.21428571428571433,
        -0.4642857142857144,
        -0.25,
        0.14285714285714288,
        -0.3214285714285715,
        -0.03571428571428572,
        -0.5357142857142858,
        -0.3571428571428572,
        0.14285714285714288,
        -0.5357142857142858,
        -0.07142857142857144,
        -0.5714285714285715,
        0.642857142857143,
        0.42857142857142866,
        0.3214285714285715,
        0.0,
        -0.6785714285714287,
        -0.5714285714285715,
        -0.1785714285714286,
        -0.21428571428571433,
        -0.03571428571428572,
        -0.39285714285714296,
        0.0,
        0.5357142857142858,
        0.642857142857143,
        0.8214285714285715,
        -0.21428571428571433,
        -0.5,
        -0.25,
        0.7857142857142859,
        0.42857142857142866,
        0.07142857142857144,
        -0.25,
        0.28571428571428575,
        -0.4642857142857144,
        -0.03571428571428572,
        0.9285714285714288,
        0.39285714285714296,
        -0.4642857142857144,
        0.03571428571428572,
        0.14285714285714288,
        0.6071428571428572,
        -0.3214285714285715,
        -0.03571428571428572,
        0.6071428571428572,
        -0.07142857142857144,
        -0.07142857142857144,
        0.42857142857142866,
        0.10714285714285716,
        -0.3214285714285715,
        0.07142857142857144,
        0.21428571428571433,
        0.1785714285714286,
        -0.5,
        -0.21428571428571433,
        0.3214285714285715,
        -0.28571428571428575,
        0.07142857142857144,
        0.39285714285714296,
        -0.03571428571428572,
        -0.07142857142857144,
        -0.3571428571428572,
        -0.28571428571428575,
        -0.10714285714285716,
        -0.6071428571428572,
        0.6071428571428572,
        0.03571428571428572,
        -0.14285714285714288,
        0.07142857142857144,
        -0.3571428571428572,
        0.28571428571428575,
        -0.14285714285714288,
        0.07142857142857144,
        -0.39285714285714296,
        0.39285714285714296,
        0.25,
        0.07142857142857144,
        0.42857142857142866,
        0.3214285714285715,
        -0.07142857142857144,
        0.642857142857143,
        -0.21428571428571433,
        -0.5714285714285715,
        -0.6071428571428572,
        0.4642857142857144,
        -0.07142857142857144,
        0.28571428571428575,
        0.5,
        0.0,
        -0.42857142857142866,
        0.5714285714285715,
        -0.5357142857142858,
        0.5,
        0.42857142857142866,
        -0.1785714285714286,
        -0.3214285714285715,
        0.7142857142857144,
        0.3571428571428572,
        0.21428571428571433,
        -0.21428571428571433,
        0.10714285714285716,
        -0.5714285714285715,
        0.0,
        0.1785714285714286,
        -0.5714285714285715,
        0.21428571428571433,
        0.0,
        0.0,
        0.03571428571428572,
        -0.21428571428571433,
        -0.5,
        -0.8928571428571429,
        0.6785714285714287,
        -0.39285714285714296,
        -0.8928571428571429,
        -0.21428571428571433,
        -0.10714285714285716,
        0.3214285714285715,
        0.28571428571428575,
        0.5714285714285715,
        -0.5,
        -0.10714285714285716,
        0.03571428571428572,
        -0.5,
        0.8571428571428573,
        0.7857142857142859,
        0.9642857142857145,
        0.4642857142857144,
        -0.10714285714285716,
        0.1785714285714286,
        -0.8214285714285715,
        0.0,
        -0.14285714285714288,
        0.25,
        0.3214285714285715,
        -0.39285714285714296,
        0.3571428571428572,
        0.28571428571428575,
        0.5714285714285715,
        0.42857142857142866,
        -0.39285714285714296,
        0.1785714285714286,
        0.03571428571428572,
        0.4642857142857144,
        -0.5714285714285715,
        -0.14285714285714288,
        -0.25,
        0.28571428571428575,
        -0.42857142857142866,
        0.0,
        -0.28571428571428575,
        -0.7142857142857144,
        0.14285714285714288,
        0.25,
        0.5,
        -0.14285714285714288,
        -0.14285714285714288,
        0.21428571428571433,
        -0.39285714285714296,
        0.3214285714285715,
        0.14285714285714288,
        -0.5357142857142858,
        -0.4642857142857144,
        -0.1785714285714286,
        0.5357142857142858,
        0.7142857142857144,
        -0.642857142857143,
        0.14285714285714288,
        -0.25,
        -0.3214285714285715,
        0.6785714285714287,
        -0.4642857142857144,
        -0.42857142857142866,
        0.0,
        0.25,
        0.28571428571428575,
        0.3214285714285715,
        0.3214285714285715,
        -0.3571428571428572,
        -0.6071428571428572,
        0.8571428571428573,
        -0.1785714285714286,
        0.8571428571428573,
        0.0,
        0.1785714285714286,
        -0.6785714285714287,
        -0.7142857142857144,
        0.39285714285714296,
        -0.07142857142857144,
        -0.14285714285714288,
        -0.28571428571428575,
        0.21428571428571433,
        -0.21428571428571433,
        0.5357142857142858,
        -0.8928571428571429,
        -0.8571428571428573,
        -0.8571428571428573,
        -0.8571428571428573,
        -0.07142857142857144,
        -0.1785714285714286,
        -0.42857142857142866,
        0.39285714285714296,
        0.9285714285714288,
        -0.8214285714285715,
        -0.10714285714285716,
        0.6071428571428572,
        -0.7500000000000002,
        0.6071428571428572,
        0.39285714285714296,
        0.07142857142857144,
        0.6071428571428572,
        0.39285714285714296,
        -0.3571428571428572,
        0.42857142857142866,
        -0.14285714285714288,
        -0.14285714285714288,
        0.3214285714285715,
        0.5714285714285715,
        0.14285714285714288,
        0.42857142857142866,
        0.3571428571428572,
        -0.3571428571428572,
        0.3214285714285715,
        -0.3571428571428572,
        0.4642857142857144,
        -0.25,
        -0.6071428571428572,
        0.39285714285714296,
        -0.03571428571428572,
        -0.8928571428571429,
        -0.07142857142857144,
        0.642857142857143,
        0.0,
        0.7142857142857144,
        -0.28571428571428575,
        0.03571428571428572,
        -0.28571428571428575,
        -0.25,
        -0.1785714285714286,
        -0.3214285714285715,
        -0.28571428571428575,
        0.0,
        -0.5,
        0.3571428571428572,
        -0.4642857142857144,
        -0.07142857142857144,
        -0.5714285714285715,
        -0.5357142857142858,
        0.03571428571428572,
        0.7142857142857144,
        -0.21428571428571433,
        -0.5,
        0.28571428571428575,
        -0.07142857142857144,
        -0.07142857142857144,
        0.03571428571428572,
        -0.10714285714285716,
        0.03571428571428572,
        -0.21428571428571433,
        0.5,
        0.39285714285714296,
        0.21428571428571433,
        -0.1785714285714286,
        -0.3571428571428572,
        0.8571428571428573,
        0.1785714285714286,
        -0.1785714285714286,
        -0.21428571428571433,
        0.14285714285714288,
        0.3571428571428572,
        -0.42857142857142866,
        -0.642857142857143,
        0.3214285714285715,
        0.21428571428571433,
        0.7500000000000002,
        0.14285714285714288,
        0.03571428571428572,
        -0.6071428571428572,
        0.1785714285714286,
        -0.3214285714285715,
        0.42857142857142866,
        0.21428571428571433,
        -0.642857142857143,
        -0.5714285714285715,
        -0.5714285714285715,
        0.42857142857142866,
        -0.1785714285714286,
        -0.25,
        0.10714285714285716,
        -0.42857142857142866,
        -0.03571428571428572,
        -0.10714285714285716,
        -0.7142857142857144,
        0.7142857142857144,
        0.07142857142857144,
        0.0,
        -0.6071428571428572,
        0.07142857142857144,
        0.3571428571428572,
        0.07142857142857144,
        0.6785714285714287,
        0.8928571428571429,
        -0.28571428571428575,
        -0.21428571428571433,
        0.1785714285714286,
        -0.21428571428571433,
        0.5,
        0.14285714285714288,
        0.21428571428571433,
        -0.14285714285714288,
        0.3571428571428572,
        0.4642857142857144,
        -0.4642857142857144,
        -0.642857142857143,
        -0.6071428571428572,
        -0.03571428571428572,
        0.10714285714285716,
        -0.14285714285714288,
        0.3214285714285715,
        0.5,
        0.03571428571428572,
        -0.28571428571428575,
        0.8571428571428573,
        0.07142857142857144,
        -0.42857142857142866,
        -0.39285714285714296,
        0.7500000000000002,
        -0.14285714285714288,
        0.42857142857142866,
        0.8214285714285715,
        0.07142857142857144,
        -0.3571428571428572,
        -0.8928571428571429,
        0.4642857142857144,
        0.07142857142857144,
        -0.07142857142857144,
        -0.03571428571428572,
        -0.5,
        0.6071428571428572,
        0.9285714285714288,
        -0.5,
        0.4642857142857144,
        0.03571428571428572,
        0.39285714285714296,
        0.39285714285714296,
        -0.8928571428571429,
        0.25,
        -0.642857142857143,
        0.642857142857143,
        -0.8571428571428573,
        -0.42857142857142866,
        0.25,
        0.21428571428571433,
        0.39285714285714296,
        -0.14285714285714288,
        0.4642857142857144,
        0.39285714285714296,
        0.7142857142857144,
        -0.7142857142857144,
        -0.3571428571428572,
        -0.3571428571428572,
        -0.10714285714285716,
        -0.642857142857143,
        0.10714285714285716,
        -0.28571428571428575,
        0.642857142857143,
        0.3214285714285715,
        -0.9285714285714288,
        -0.21428571428571433,
        0.1785714285714286,
        -0.03571428571428572,
        0.14285714285714288,
        -0.3214285714285715,
        -0.42857142857142866,
        -0.1785714285714286,
        0.07142857142857144,
        -0.7857142857142859,
        -0.10714285714285716,
        -0.21428571428571433,
        0.0,
        0.03571428571428572,
        -0.10714285714285716,
        0.21428571428571433,
        0.3571428571428572,
        0.28571428571428575,
        0.14285714285714288,
        0.10714285714285716,
        -0.21428571428571433,
        0.6785714285714287,
        0.5357142857142858,
        0.5357142857142858,
        0.0,
        0.10714285714285716,
        0.28571428571428575,
        -0.642857142857143,
        0.21428571428571433,
        -0.10714285714285716,
        0.5,
        -0.25,
        0.3214285714285715,
        0.4642857142857144,
        -0.03571428571428572,
        0.14285714285714288,
        0.6071428571428572,
        -0.39285714285714296,
        0.42857142857142866,
        0.10714285714285716,
        -0.3571428571428572,
        -0.07142857142857144,
        -0.07142857142857144,
        0.28571428571428575,
        0.3571428571428572,
        0.14285714285714288,
        -0.42857142857142866,
        0.14285714285714288,
        -0.14285714285714288,
        0.28571428571428575,
        -0.39285714285714296,
        0.28571428571428575,
        0.10714285714285716,
        0.3571428571428572,
        -0.6785714285714287,
        -0.3214285714285715,
        -0.3214285714285715,
        0.14285714285714288,
        -0.14285714285714288,
        0.642857142857143,
        0.14285714285714288,
        0.14285714285714288,
        0.7142857142857144,
        0.10714285714285716,
        -0.42857142857142866,
        0.07142857142857144,
        -0.14285714285714288,
        -0.6071428571428572,
        -0.03571428571428572,
        0.7500000000000002,
        -0.3571428571428572,
        0.7500000000000002,
        -0.28571428571428575,
        0.03571428571428572,
        0.39285714285714296,
        0.21428571428571433,
        0.28571428571428575,
        0.3571428571428572,
        -0.10714285714285716,
        0.03571428571428572,
        -0.14285714285714288,
        0.39285714285714296,
        0.10714285714285716,
        -0.3571428571428572,
        0.0,
        -0.3214285714285715,
        0.3214285714285715,
        0.0,
        0.7500000000000002,
        -0.21428571428571433,
        0.39285714285714296,
        -0.14285714285714288,
        0.25,
        -0.1785714285714286,
        0.5714285714285715,
        0.25,
        0.6785714285714287,
        -0.3214285714285715,
        0.42857142857142866,
        -0.1785714285714286,
        -0.642857142857143,
        0.5357142857142858,
        0.7142857142857144,
        -0.3214285714285715,
        0.6071428571428572,
        -0.25,
        -0.642857142857143,
        0.10714285714285716,
        -0.21428571428571433,
        -0.03571428571428572,
        -0.7142857142857144,
        -0.03571428571428572,
        -0.14285714285714288,
        0.25,
        0.03571428571428572,
        -0.10714285714285716,
        -0.03571428571428572,
        0.14285714285714288,
        0.21428571428571433,
        0.5357142857142858,
        0.0,
        -0.28571428571428575,
        -0.642857142857143,
        0.7142857142857144,
        -0.14285714285714288,
        -0.6785714285714287,
        0.4642857142857144,
        0.07142857142857144,
        0.0,
        -0.7142857142857144,
        -0.03571428571428572,
        -0.21428571428571433,
        -0.21428571428571433,
        0.1785714285714286,
        0.03571428571428572,
        0.0,
        0.0,
        0.3214285714285715,
        0.3214285714285715,
        -0.14285714285714288,
        -0.5,
        0.14285714285714288,
        0.07142857142857144,
        0.10714285714285716,
        -0.03571428571428572,
        0.21428571428571433,
        -0.14285714285714288,
        -0.4642857142857144,
        0.642857142857143,
        0.39285714285714296,
        -0.25,
        -0.10714285714285716,
        0.03571428571428572,
        0.10714285714285716,
        -0.10714285714285716,
        0.14285714285714288,
        -0.1785714285714286,
        -0.42857142857142866,
        0.3214285714285715,
        0.5357142857142858,
        0.10714285714285716,
        0.14285714285714288,
        0.28571428571428575,
        0.39285714285714296,
        0.10714285714285716,
        0.21428571428571433,
        0.5714285714285715,
        0.03571428571428572,
        0.3214285714285715,
        0.14285714285714288,
        -0.39285714285714296,
        0.5,
        -0.5714285714285715,
        0.21428571428571433,
        0.1785714285714286,
        0.14285714285714288,
        -0.3571428571428572,
        0.39285714285714296,
        -0.5,
        0.3214285714285715,
        0.0,
        0.3571428571428572,
        0.5357142857142858,
        0.42857142857142866,
        -0.03571428571428572,
        0.6071428571428572,
        -0.28571428571428575,
        -0.5,
        -0.03571428571428572,
        -0.39285714285714296,
        0.25,
        0.03571428571428572,
        0.7142857142857144,
        -0.07142857142857144,
        -0.25,
        -0.1785714285714286,
        0.3571428571428572,
        0.7142857142857144,
        0.03571428571428572,
        -0.14285714285714288,
        0.14285714285714288,
        -0.42857142857142866,
        0.10714285714285716,
        0.14285714285714288,
        0.1785714285714286,
        -0.21428571428571433,
        -0.7857142857142859,
        -0.642857142857143,
        -0.8214285714285715,
        -0.4642857142857144,
        0.3214285714285715,
        0.7142857142857144,
        0.642857142857143,
        -0.3571428571428572,
        0.3214285714285715,
        0.0,
        0.03571428571428572,
        0.5357142857142858,
        -0.39285714285714296,
        0.5,
        -0.5,
        -0.14285714285714288,
        0.07142857142857144,
        0.6071428571428572,
        0.6071428571428572,
        0.0,
        -0.42857142857142866,
        -0.8571428571428573,
        0.5357142857142858,
        -0.39285714285714296,
        0.21428571428571433,
        -0.03571428571428572,
        0.14285714285714288,
        0.1785714285714286,
        -0.7500000000000002,
        -0.28571428571428575,
        0.5357142857142858,
        0.3214285714285715,
        -0.25,
        -0.1785714285714286,
        0.4642857142857144,
        -0.21428571428571433,
        0.7500000000000002,
        0.7142857142857144,
        0.10714285714285716,
        -0.3571428571428572,
        -0.5714285714285715,
        -0.21428571428571433,
        -0.03571428571428572,
        -0.5,
        0.3214285714285715,
        -0.7500000000000002,
        0.0,
        -0.1785714285714286,
        -0.28571428571428575,
        -0.5714285714285715,
        -0.3214285714285715,
        0.7857142857142859,
        0.28571428571428575,
        -0.42857142857142866,
        0.7857142857142859,
        -0.14285714285714288,
        0.07142857142857144,
        0.28571428571428575,
        -0.5714285714285715,
        0.8571428571428573,
        0.642857142857143,
        0.5714285714285715,
        0.5714285714285715,
        0.42857142857142866,
        0.5357142857142858,
        -0.6785714285714287,
        -0.07142857142857144,
        0.7142857142857144,
        -0.5357142857142858,
        -0.21428571428571433,
        0.3571428571428572,
        -0.3214285714285715,
        0.39285714285714296,
        0.8214285714285715,
        0.21428571428571433,
        -0.03571428571428572,
        -0.3571428571428572,
        0.6071428571428572,
        0.0,
        -0.14285714285714288,
        -0.03571428571428572,
        0.14285714285714288,
        0.07142857142857144,
        -0.10714285714285716,
        0.5714285714285715,
        -0.3571428571428572,
        -0.8928571428571429,
        0.4642857142857144,
        -0.6071428571428572,
        0.5714285714285715,
        0.39285714285714296,
        -0.28571428571428575,
        -0.25,
        -0.21428571428571433,
        -0.5357142857142858,
        -0.03571428571428572,
        0.39285714285714296,
        -0.28571428571428575,
        0.14285714285714288,
        -0.25,
        0.3571428571428572,
        -0.5714285714285715,
        0.8571428571428573,
        -0.25,
        -0.25,
        0.6785714285714287,
        0.14285714285714288,
        -0.5714285714285715,
        -0.21428571428571433,
        -0.07142857142857144,
        0.5714285714285715,
        0.28571428571428575,
        0.28571428571428575,
        0.3571428571428572,
        0.42857142857142866,
        0.28571428571428575,
        0.7142857142857144,
        -0.42857142857142866,
        0.10714285714285716,
        0.8571428571428573,
        -0.3214285714285715,
        0.21428571428571433,
        0.10714285714285716,
        0.42857142857142866,
        -0.5,
        0.42857142857142866,
        0.3571428571428572,
        0.21428571428571433,
        0.5357142857142858,
        0.14285714285714288,
        0.3571428571428572,
        -0.14285714285714288,
        0.7142857142857144,
        -0.07142857142857144,
        -0.25,
        0.6785714285714287,
        0.3571428571428572,
        -0.03571428571428572,
        -0.21428571428571433,
        -0.3571428571428572,
        -0.5357142857142858,
        0.642857142857143,
        -0.39285714285714296,
        0.6785714285714287,
        0.07142857142857144,
        0.1785714285714286,
        0.39285714285714296,
        -0.25,
        -0.1785714285714286,
        0.03571428571428572,
        -0.7142857142857144,
        0.5,
        -0.7857142857142859,
        -0.42857142857142866,
        0.25,
        0.42857142857142866,
        -0.5,
        0.42857142857142866,
        0.6785714285714287,
        -0.03571428571428572,
        0.5714285714285715,
        -0.07142857142857144,
        0.03571428571428572,
        -0.1785714285714286,
        0.10714285714285716,
        -0.14285714285714288,
        -0.8571428571428573,
        0.21428571428571433,
        0.21428571428571433,
        0.0,
        -0.39285714285714296,
        0.25,
        0.8214285714285715,
        0.1785714285714286,
        0.25,
        0.1785714285714286,
        0.3214285714285715,
        0.7500000000000002,
        0.21428571428571433,
        -0.14285714285714288,
        0.07142857142857144,
        -0.28571428571428575,
        0.07142857142857144,
        0.7500000000000002,
        0.5,
        0.5,
        0.10714285714285716,
        0.21428571428571433,
        -0.03571428571428572,
        -0.1785714285714286,
        0.3214285714285715,
        -0.10714285714285716,
        0.7142857142857144,
        -0.3214285714285715,
        0.7142857142857144,
        -0.5714285714285715,
        -0.10714285714285716,
        0.14285714285714288,
        -0.21428571428571433,
        -0.7142857142857144,
        -0.42857142857142866,
        -0.5714285714285715,
        -0.10714285714285716,
        0.42857142857142866,
        0.3214285714285715,
        -0.6071428571428572,
        0.0,
        -0.642857142857143,
        -0.5714285714285715,
        0.25,
        -0.03571428571428572,
        -0.10714285714285716,
        -0.21428571428571433,
        -0.1785714285714286,
        -0.10714285714285716,
        -0.1785714285714286,
        -0.07142857142857144,
        0.0,
        -0.39285714285714296,
        0.21428571428571433,
        -0.25,
        0.14285714285714288,
        0.39285714285714296,
        0.5357142857142858,
        0.3214285714285715,
        -0.14285714285714288,
        -0.28571428571428575,
        0.25,
        -0.7500000000000002,
        0.0,
        0.03571428571428572,
        -0.5,
        0.03571428571428572,
        -0.3571428571428572,
        0.4642857142857144,
        0.07142857142857144,
        -0.07142857142857144,
        -0.28571428571428575,
        0.28571428571428575,
        0.21428571428571433,
        0.14285714285714288,
        -0.8928571428571429,
        0.0,
        0.0,
        -0.5,
        0.25,
        -0.14285714285714288,
        -0.1785714285714286,
        -0.4642857142857144,
        -0.6785714285714287,
        -0.25,
        0.3214285714285715,
        0.1785714285714286,
        -0.10714285714285716,
        0.3571428571428572,
        0.3214285714285715,
        0.03571428571428572,
        0.5714285714285715,
        0.0,
        0.10714285714285716,
        0.0,
        0.5357142857142858,
        -0.28571428571428575,
        -0.14285714285714288,
        0.3214285714285715,
        0.42857142857142866,
        -0.3214285714285715,
        0.21428571428571433,
        0.21428571428571433,
        0.7142857142857144,
        -0.42857142857142866,
        -0.5,
        -0.5714285714285715,
        0.10714285714285716,
        0.6071428571428572,
        -0.14285714285714288,
        -0.3214285714285715,
        -0.28571428571428575,
        -0.3571428571428572,
        -0.5357142857142858,
        -0.5,
        0.14285714285714288,
        0.8571428571428573,
        0.21428571428571433,
        -0.3214285714285715,
        -0.14285714285714288,
        0.07142857142857144,
        -0.39285714285714296,
        0.14285714285714288,
        -0.5357142857142858,
        -0.21428571428571433,
        0.3571428571428572,
        0.25,
        -0.28571428571428575,
        -0.10714285714285716,
        -0.6071428571428572,
        -0.4642857142857144,
        -0.5714285714285715,
        0.7500000000000002,
        -0.1785714285714286,
        -0.25,
        0.14285714285714288,
        0.42857142857142866,
        0.5357142857142858,
        -0.28571428571428575,
        0.14285714285714288,
        0.0,
        0.3571428571428572,
        0.42857142857142866
      ],
      "mean": 0.013321428571428574,
      "std": 0.4093827343871329
    },
    "operator_weights": {
      "rho": [
        0.5,
        1.0,
        0.5,
        -0.5,
        0.5,
        -0.5,
        -1.0,
        -0.5,
        0.5,
        -1.0,
        -0.5,
        -0.5,
        -1.0,
        1.0,
        0.5,
        -0.5,
        0.5,
        -0.5,
        0.5,
        0.5,
        1.0,
        -1.0,
        1.0,
        -0.5,
        0.5,
        -0.5,
        0.5,
        -1.0,
        -0.5,
        -1.0,
        -0.5,
        -1.0,
        -0.5,
        -1.0,
        -0.5,
        0.5,
        -0.5,
        0.5,
        0.5,
        0.5,
        -0.5,
        1.0,
        1.0,
        0.5,
        0.5,
        1.0,
        -0.5,
        1.0,
        -0.5,
        0.5,
        -0.5,
        -1.0,
        0.5,
        1.0,
        1.0,
        -0.5,
        -0.5,
        -0.5,
        1.0,
        -0.5,
        -0.5,
        -1.0,
        0.5,
        0.5,
        -1.0,
        -0.5,
        -0.5,
        -0.5,
        -1.0,
        -0.5,
        -0.5,
        0.5,
        0.5,
        -0.5,
        -1.0,
        1.0,
        0.5,
        0.5,
        0.5,
        -0.5,
        -1.0,
        0.5,
        0.5,
        -0.5,
        -1.0,
        -0.5,
        -1.0,
        -0.5,
        -1.0,
        0.5,
        0.5,
        -0.5,
        -1.0,
        -1.0,
        0.5,
        1.0,
        0.5,
        1.0,
        -1.0,
        -1.0,
        1.0,
        -0.5,
        -1.0,
        -0.5,
        0.5,
        1.0,
        0.5,
        -1.0,
        0.5,
        1.0,
        -1.0,
        1.0,
        1.0,
        0.5,
        -1.0,
        -0.5,
        0.5,
        -0.5,
        -0.5,
        0.5,
        0.5,
        1.0,
        -0.5,
        0.5,
        -0.5,
        0.5,
        -0.5,
        -1.0,
        -1.0,
        -1.0,
        -1.0,
        0.5,
        -0.5,
        -1.0,
        1.0,
        0.5,
        -0.5,
        -0.5,
        -0.5,
        0.5,
        -0.5,
        0.5,
        -0.5,
        -0.5,
        1.0,
        0.5,
        1.0,
        -0.5,
        0.5,
        -0.5,
        0.5,
        0.5,
        0.5,
        -0.5,
        -1.0,
        -0.5,
        1.0,
        0.5,
        0.5,
        -0.5,
        -0.5,
        0.5,
        1.0,
        -1.0,
        0.5,
        0.5,
        0.5,
        -0.5,
        0.5,
        -1.0,
        -1.0,
        1.0,
        -1.0,
        -0.5,
        0.5,
        -0.5,
        -0.5,
        1.0,
        0.5,
        -0.5,
        1.0,
        0.5,
        -0.5,
        -0.5,
        -1.0,
        0.5,
        -0.5,
        -0.5,
        0.5,
        0.5,
        0.5,
        0.5,
        1.0,
        1.0,
        -0.5,
        0.5,
        0.5,
        -0.5,
        -0.5,
        0.5,
        -0.5,
        -0.5,
        -0.5,
        0.5,
        -0.5,
        -1.0,
        1.0,
        -0.5,
        0.5,
        1.0,
        0.5,
        1.0,
        0.5,
        -0.5,
        -0.5,
        -1.0,
        -0.5,
        0.5,
        1.0,
        0.5,
        1.0,
        0.5,
        0.5,
        1.0,
        -0.5,
        0.5,
        -0.5,
        0.5,
        0.5,
        0.5,
        -0.5,
        0.5,
        -0.5,
        0.5,
        0.5,
        -0.5,
        0.5,
        -0.5,
        1.0,
        -0.5,
        -1.0,
        -0.5,
        0.5,
        -0.5,
        1.0,
        0.5,
        -1.0,
        -0.5,
        1.0,
        -1.0,
        -0.5,
        -1.0,
        -1.0,
        1.0,
        0.5,
        -0.5,
        -1.0,
        0.5,
        -0.5,
        0.5,
        -0.5,
        -0.5,
        -1.0,
        0.5,
        -0.5,
        0.5,
        -1.0,
        -0.5,
        0.5,
        -1.0,
        -0.5,
        -1.0,
        0.5,
        -0.5,
        0.5,
        -1.0,
        -0.5,
        0.5,
        0.5,
        0.5,
        1.0,
        0.5,
        0.5,
        -0.5,
        -0.5,
        0.5,
        1.0,
        -1.0,
        -0.5,
        1.0,
        -0.5,
        -1.0,
        0.5,
        1.0,
        0.5,
        0.5,
        1.0,
        1.0,
        0.5,
        -1.0,
        -0.5,
        -1.0,
        -1.0,
        -0.5,
        0.5,
        0.5,
        -1.0,
        -0.5,
        0.5,
        1.0,
        0.5,
        -0.5,
        0.5,
        0.5,
        -0.5,
        -0.5,
        -0.5,
        1.0,
        0.5,
        0.5,
        -0.5,
        -1.0,
        1.0,
        1.0,
        -1.0,
        0.5,
        -0.5,
        -0.5,
        1.0,
        -0.5,
        -0.5,
        -1.0,
        -0.5,
        0.5,
        0.5,
        0.5,
        1.0,
        0.5,
        0.5,
        -0.5,
        1.0,
        0.5,
        0.5,
        -1.0,
        -0.5,
        -0.5,
        0.5,
        -1.0,
        -0.5,
        -0.5,
        0.5,
        1.0,
        -0.5,
        -1.0,
        1.0,
        -0.5,
        0.5,
        0.5,
        -1.0,
        -0.5,
        0.5,
        -1.0,
        1.0,
        -0.5,
        0.5,
        0.5,
        -0.5,
        0.5,
        -1.0,
        -1.0,
        -0.5,
        0.5,
        -0.5,
        1.0,
        0.5,
        1.0,
        0.5,
        -0.5,
        0.5,
        -1.0,
        -0.5,
        0.5,
        -0.5,
        -0.5,
        0.5,
        -0.5,
        -0.5,
        -0.5,
        1.0,
        -0.5,
        -0.5,
        0.5,
        0.5,
        -0.5,
        -0.5,
        0.5,
        -1.0,
        1.0,
        0.5,
        -0.5,
        1.0,
        -1.0,
        -1.0,
        -0.5,
        -0.5,
        0.5,
        1.0,
        -0.5,
        0.5,
        1.0,
        -1.0,
        0.5,
        -1.0,
        -0.5,
        -1.0,
        -0.5,
        -0.5,
        0.5,
        0.5,
        1.0,
        -0.5,
        -0.5,
        1.0,
        0.5,
        1.0,
        0.5,
        -0.5,
        -0.5,
        -1.0,
        -0.5,
        0.5,
        0.5,
        -0.5,
        -1.0,
        0.5,
        1.0,
        -1.0,
        0.5,
        1.0,
        -0.5,
        0.5,
        -1.0,
        0.5,
        -0.5,
        -0.5,
        -0.5,
        0.5,
        -1.0,
        1.0,
        -0.5,
        0.5,
        1.0,
        0.5,
        1.0,
        1.0,
        0.5,
        -1.0,
        0.5,
        -1.0,
        0.5,
        0.5,
        0.5,
        0.5,
        -1.0,
        -0.5,
        0.5,
        0.5,
        0.5,
        0.5,
        1.0,
        0.5,
        -0.5,
        -1.0,
        -1.0,
        0.5,
        1.0,
        1.0,
        -0.5,
        -0.5,
        -0.5,
        -1.0,
        -0.5,
        -1.0,
        1.0,
        1.0,
        -0.5,
        0.5,
        0.5,
        1.0,
        -0.5,
        0.5,
        0.5,
        0.5,
        -1.0,
        -1.0,
        -1.0,
        0.5,
        1.0,
        0.5,
        -0.5,
        -0.5,
        -0.5,
        1.0,
        1.0,
        0.5,
        -0.5,
        -0.5,
        -0.5,
        0.5,
        -0.5,
        1.0,
        -1.0,
        -0.5,
        0.5,
        -0.5,
        -0.5,
        -1.0,
        -0.5,
        1.0,
        -0.5,
        -1.0,
        1.0,
        -1.0,
        -1.0,
        -0.5,
        0.5,
        0.5,
        -1.0,
        -0.5,
        1.0,
        0.5,
        0.5,
        -0.5,
        -0.5,
        -0.5,
        0.5,
        -0.5,
        -1.0,
        -0.5,
        0.5,
        -1.0,
        1.0,
        -0.5,
        0.5,
        0.5,
        -1.0,
        1.0,
        0.5,
        -1.0,
        1.0,
        -0.5,
        -0.5,
        1.0,
        0.5,
        -1.0,
        0.5,
        0.5,
        -0.5,
        0.5,
        0.5,
        1.0,
        1.0,
        -1.0,
        -1.0,
        -0.5,
        -1.0,
        0.5,
        0.5,
        -0.5,
        -0.5,
        -0.5,
        -0.5,
        1.0,
        0.5,
        1.0,
        1.0,
        -1.0,
        1.0,
        -0.5,
        0.5,
        -0.5,
        -0.5,
        1.0,
        -0.5,
        0.5,
        -0.5,
        -0.5,
        -1.0,
        -0.5,
        0.5,
        -0.5,
        -1.0,
        -0.5,
        1.0,
        -1.0,
        0.5,
        -1.0,
        1.0,
        -1.0,
        -1.0,
        0.5,
        -1.0,
        0.5,
        -0.5,
        -1.0,
        -0.5,
        0.5,
        -0.5,
        0.5,
        -1.0,
        -0.5,
        1.0,
        0.5,
        -1.0,
        1.0,
        1.0,
        -0.5,
        -1.0,
        -1.0,
        -0.5,
        0.5,
        0.5,
        0.5,
        -0.5,
        -0.5,
        0.5,
        -1.0,
        -0.5,
        0.5,
        0.5,
        1.0,
        0.5,
        0.5,
        -1.0,
        1.0,
        0.5,
        0.5,
        0.5,
        -0.5,
        0.5,
        -1.0,
        -1.0,
        -0.5,
        0.5,
        0.5,
        0.5,
        0.5,
        1.0,
        0.5,
        -0.5,
        -0.5,
        1.0,
        -0.5,
        -1.0,
        -1.0,
        0.5,
        1.0,
        -0.5,
        -0.5,
        0.5,
        -0.5,
        0.5,
        1.0,
        0.5,
        -0.5,
        -0.5,
        0.5,
        -0.5,
        -0.5,
        -0.5,
        -0.5,
        1.0,
        -1.0,
        0.5,
        0.5,
        -0.5,
        -1.0,
        0.5,
        0.5,
        1.0,
        0.5,
        -0.5,
        0.5,
        -0.5,
        0.5,
        1.0,
        1.0,
        0.5,
        -0.5,
        -0.5,
        -0.5,
        -0.5,
        0.5,
        -1.0,
        -0.5,
        -1.0,
        -0.5,
        1.0,
        1.0,
        -1.0,
        -0.5,
        -0.5,
        -1.0,
        -1.0,
        -0.5,
        -0.5,
        -0.5,
        -0.5,
        -0.5,
        0.5,
        1.0,
        -0.5,
        -1.0,
        -1.0,
        -0.5,
        0.5,
        -0.5,
        -0.5,
        0.5,
        -1.0,
        1.0,
        -0.5,
        0.5,
        1.0,
        -0.5,
        -0.5,
        0.5,
        1.0,
        -1.0,
        -1.0,
        0.5,
        -0.5,
        -0.5,
        -0.5,
        1.0,
        -0.5,
        -0.5,
        1.0,
        0.5,
        -0.5,
        0.5,
        -0.5,
        0.5,
        1.0,
        -0.5,
        0.5,
        -0.5,
        -1.0,
        0.5,
        -0.5,
        1.0,
        -0.5,
        0.5,
        -1.0,
        -1.0,
        0.5,
        0.5,
        -1.0,
        -1.0,
        0.5,
        1.0,
        0.5,
        0.5,
        -0.5,
        0.5,
        -0.5,
        1.0,
        -1.0,
        0.5,
        1.0,
        0.5,
        -0.5,
        -1.0,
        -0.5,
        0.5,
        0.5,
        0.5,
        0.5,
        0.5,
        -0.5,
        -1.0,
        0.5,
        -0.5,
        0.5,
        1.0,
        -1.0,
        -0.5,
        -1.0,
        -0.5,
        -1.0,
        0.5,
        1.0,
        -1.0,
        1.0,
        -1.0,
        -0.5,
        1.0,
        -0.5,
        -1.0,
        -0.5,
        -0.5,
        -1.0,
        0.5,
        1.0,
        -0.5,
        -1.0,
        0.5,
        1.0,
        -0.5,
        1.0,
        -0.5,
        0.5,
        1.0,
        0.5,
        -1.0,
        1.0,
        -1.0,
        -0.5,
        1.0,
        0.5,
        0.5,
        -0.5,
        -0.5,
        1.0,
        0.5,
        0.5,
        1.0,
        -1.0,
        -0.5,
        -1.0,
        0.5,
        -0.5,
        -1.0,
        0.5,
        -0.5,
        1.0,
        0.5,
        -1.0,
        -0.5,
        1.0,
        -0.5,
        0.5,
        0.5,
        0.5,
        0.5,
        -1.0,
        0.5,
        1.0,
        1.0,
        1.0,
        0.5,
        0.5,
        1.0,
        -1.0,
        -1.0,
        1.0,
        -0.5,
        -0.5,
        -0.5,
        -1.0,
        1.0,
        -0.5,
        -1.0,
        0.5,
        -0.5,
        0.5,
        0.5,
        0.5,
        0.5,
        0.5,
        0.5,
        1.0,
        0.5,
        1.0,
        -0.5,
        1.0,
        -0.5,
        0.5,
        0.5,
        -0.5,
        -1.0,
        0.5,
        -0.5,
        -0.5,
        1.0,
        0.5,
        0.5,
        -0.5,
        0.5,
        0.5,
        0.5,
        -0.5,
        0.5,
        -1.0,
        -1.0,
        -1.0,
        -0.5,
        0.5,
        -0.5,
        1.0,
        -1.0,
        -0.5,
        -0.5,
        -0.5,
        -0.5,
        1.0,
        0.5,
        0.5,
        0.5,
        -1.0,
        -0.5,
        -1.0,
        -0.5,
        -0.5,
        1.0,
        -0.5,
        -0.5,
        -1.0,
        0.5,
        0.5,
        0.5,
        0.5,
        0.5,
        1.0,
        -1.0,
        -0.5,
        0.5,
        -1.0,
        1.0,
        -0.5,
        -1.0,
        -1.0,
        0.5,
        1.0,
        0.5,
        0.5,
        0.5,
        -0.5,
        -0.5,
        -0.5,
        -0.5,
        -0.5,
        -0.5,
        0.5,
        -0.5,
        1.0,
        1.0,
        -0.5,
        -0.5,
        -0.5,
        0.5,
        -1.0,
        0.5,
        -0.5,
        1.0,
        -0.5,
        0.5,
        -0.5,
        0.5,
        0.5,
        -0.5,
        0.5,
        -0.5,
        0.5,
        0.5,
        -0.5,
        -1.0,
        1.0,
        0.5,
        1.0,
        1.0,
        -0.5,
        -1.0,
        0.5,
        0.5,
        -0.5,
        0.5,
        -1.0,
        0.5,
        -0.5,
        -0.5,
        -0.5,
        -0.5,
        0.5,
        -1.0,
        -0.5,
        0.5,
        0.5,
        -1.0,
        1.0,
        -0.5,
        -0.5,
        -1.0,
        -1.0,
        0.5,
        -0.5,
        0.5,
        1.0,
        -0.5,
        -1.0
      ],
      "mean": -0.019,
      "std": 0.7114344664127539
    },
    "sector_bases": {
      "rho": [
        -0.07142857142857144,
        0.21428571428571433,
        -0.21428571428571433,
        -0.39285714285714296,
        -0.03571428571428572,
        -0.39285714285714296,
        0.14285714285714288,
        -0.5,
        -0.10714285714285716,
        -0.42857142857142866,
        0.3571428571428572,
        0.5,
        -0.39285714285714296,
        0.5,
        0.5,
        0.28571428571428575,
        0.3214285714285715,
        -0.7500000000000002,
        0.10714285714285716,
        0.14285714285714288,
        -0.14285714285714288,
        -0.10714285714285716,
        0.1785714285714286,
        0.39285714285714296,
        -0.14285714285714288,
        0.3571428571428572,
        0.28571428571428575,
        0.28571428571428575,
        0.42857142857142866,
        -0.6785714285714287,
        0.3571428571428572,
        -0.42857142857142866,
        0.0,
        -0.8571428571428573,
        -0.21428571428571433,
        0.42857142857142866,
        -0.1785714285714286,
        0.03571428571428572,
        -0.642857142857143,
        -0.5714285714285715,
        -0.642857142857143,
        0.3214285714285715,
        0.42857142857142866,
        0.4642857142857144,
        -0.14285714285714288,
        -0.6785714285714287,
        0.0,
        -0.39285714285714296,
        0.21428571428571433,
        -0.07142857142857144,
        -0.03571428571428572,
        0.10714285714285716,
        0.5714285714285715,
        -0.10714285714285716,
        0.8571428571428573,
        0.42857142857142866,
        0.42857142857142866,
        -0.3214285714285715,
        0.21428571428571433,
        -0.5,
        -0.6071428571428572,
        -0.8571428571428573,
        0.7857142857142859,
        -0.07142857142857144,
        -0.5,
        -0.8214285714285715,
        0.25,
        0.5714285714285715,
        -0.642857142857143,
        -0.5357142857142858,
        0.25,
        0.3214285714285715,
        -0.7142857142857144,
        0.10714285714285716,
        -0.3571428571428572,
        -0.03571428571428572,
        0.10714285714285716,
        0.21428571428571433,
        0.7857142857142859,
        -0.3214285714285715,
        0.42857142857142866,
        -0.07142857142857144,
        0.21428571428571433,
        0.28571428571428575,
        0.8928571428571429,
        -0.5714285714285715,
        -0.10714285714285716,
        0.7142857142857144,
        0.28571428571428575,
        -0.25,
        -0.10714285714285716,
        -0.07142857142857144,
        0.7857142857142859,
        0.1785714285714286,
        0.14285714285714288,
        0.42857142857142866,
        0.1785714285714286,
        0.5714285714285715,
        -0.4642857142857144,
        -0.42857142857142866,
        0.6071428571428572,
        -0.14285714285714288,
        -0.07142857142857144,
        -0.42857142857142866,
        0.3571428571428572,
        0.7142857142857144,
        -0.3571428571428572,
        0.3571428571428572,
        0.1785714285714286,
        -0.4642857142857144,
        -0.28571428571428575,
        0.21428571428571433,
        -0.3571428571428572,
        -0.3214285714285715,
        0.14285714285714288,
        0.5714285714285715,
        -0.03571428571428572,
        0.28571428571428575,
        0.07142857142857144,
        -0.07142857142857144,
        -0.5,
        -0.28571428571428575,
        0.28571428571428575,
        0.1785714285714286,
        0.14285714285714288,
        0.7142857142857144,
        0.07142857142857144,
        -0.1785714285714286,
        0.42857142857142866,
        0.07142857142857144,
        -0.21428571428571433,
        -0.14285714285714288,
        -0.3571428571428572,
        0.1785714285714286,
        0.3214285714285715,
        0.0,
        -0.3214285714285715,
        0.14285714285714288,
        0.5714285714285715,
        -0.3571428571428572,
        -0.21428571428571433,
        -0.6071428571428572,
        0.07142857142857144,
        0.6785714285714287,
        -0.42857142857142866,
        0.14285714285714288,
        -0.1785714285714286,
        0.21428571428571433,
        -0.07142857142857144,
        0.10714285714285716,
        0.10714285714285716,
        -0.42857142857142866,
        0.0,
        -0.21428571428571433,
        -0.03571428571428572,
        -0.25,
        0.3214285714285715,
        -0.3214285714285715,
        0.0,
        0.3571428571428572,
        -0.28571428571428575,
        0.6071428571428572,
        -0.07142857142857144,
        -0.7142857142857144,
        -0.10714285714285716,
        0.0,
        0.07142857142857144,
        -0.42857142857142866,
        0.7142857142857144,
        -0.07142857142857144,
        -0.21428571428571433,
        0.07142857142857144,
        -0.03571428571428572,
        0.03571428571428572,
        -0.3571428571428572,
        -0.14285714285714288,
        0.28571428571428575,
        -0.10714285714285716,
        0.3214285714285715,
        0.07142857142857144,
        0.07142857142857144,
        -0.3571428571428572,
        -0.5714285714285715,
        -0.28571428571428575,
        0.21428571428571433,
        0.14285714285714288,
        0.4642857142857144,
        -0.03571428571428572,
        -0.03571428571428572,
        -0.10714285714285716,
        0.10714285714285716,
        0.10714285714285716,
        0.14285714285714288,
        0.0,
        -0.5357142857142858,
        -0.7857142857142859,
        0.5714285714285715,
        0.6785714285714287,
        -0.1785714285714286,
        0.8571428571428573,
        -0.1785714285714286,
        0.39285714285714296,
        0.39285714285714296,
        0.07142857142857144,
        0.1785714285714286,
        -0.21428571428571433,
        0.28571428571428575,
        0.21428571428571433,
        0.3214285714285715,
        -0.42857142857142866,
        0.0,
        -0.03571428571428572,
        0.1785714285714286,
        -0.7142857142857144,
        -0.28571428571428575,
        0.6785714285714287,
        0.39285714285714296,
        -0.8214285714285715,
        -0.6785714285714287,
        -0.21428571428571433,
        0.21428571428571433,
        0.1785714285714286,
        -0.21428571428571433,
        0.42857142857142866,
        0.3571428571428572,
        -0.42857142857142866,
        0.5714285714285715,
        -0.21428571428571433,
        -0.4642857142857144,
        -0.14285714285714288,
        -0.07142857142857144,
        0.10714285714285716,
        0.3214285714285715,
        -0.25,
        -0.3214285714285715,
        -0.4642857142857144,
        -0.42857142857142866,
        -0.10714285714285716,
        -0.03571428571428572,
        0.07142857142857144,
        -0.21428571428571433,
        -0.07142857142857144,
        0.5357142857142858,
        -0.5,
        0.28571428571428575,
        0.21428571428571433,
        -0.7500000000000002,
        0.5,
        -0.03571428571428572,
        0.39285714285714296,
        0.3214285714285715,
        -0.3571428571428572,
        0.0,
        -0.39285714285714296,
        -0.3571428571428572,
        0.6785714285714287,
        0.9285714285714288,
        -0.8571428571428573,
        -0.642857142857143,
        -0.03571428571428572,
        -0.25,
        0.3214285714285715,
        0.25,
        0.3571428571428572,
        0.39285714285714296,
        0.3571428571428572,
        0.6071428571428572,
        -0.07142857142857144,
        -0.5,
        0.25,
        0.642857142857143,
        0.21428571428571433,
        0.5,
        -0.10714285714285716,
        -0.03571428571428572,
        -0.5714285714285715,
        0.5357142857142858,
        0.4642857142857144,
        -0.642857142857143,
        -0.1785714285714286,
        0.25,
        -0.8571428571428573,
        0.28571428571428575,
        -0.5357142857142858,
        0.0,
        -0.642857142857143,
        0.1785714285714286,
        0.5,
        0.642857142857143,
        0.5,
        0.42857142857142866,
        0.5357142857142858,
        0.0,
        -0.14285714285714288,
        0.1785714285714286,
        -0.07142857142857144,
        -0.28571428571428575,
        0.1785714285714286,
        0.42857142857142866,
        0.21428571428571433,
        -0.21428571428571433,
        0.28571428571428575,
        -0.6071428571428572,
        0.3571428571428572,
        0.28571428571428575,
        0.0,
        0.25,
        -0.03571428571428572,
        -0.25,
        -0.4642857142857144,
        0.5714285714285715,
        0.5357142857142858,
        0.21428571428571433,
        0.0,
        0.1785714285714286,
        -0.28571428571428575,
        -0.21428571428571433,
        -0.7142857142857144,
        0.5,
        0.42857142857142866,
        0.10714285714285716,
        -0.07142857142857144,
        0.1785714285714286,
        0.5714285714285715,
        -0.5357142857142858,
        -0.5357142857142858,
        0.8214285714285715,
        -0.21428571428571433,
        0.21428571428571433,
        -0.5,
        0.25,
        -0.10714285714285716,
        -0.1785714285714286,
        0.21428571428571433,
        0.8571428571428573,
        -0.28571428571428575,
        -0.25,
        -0.6071428571428572,
        -0.42857142857142866,
        -0.10714285714285716,
        0.21428571428571433,
        -0.42857142857142866,
        0.7142857142857144,
        -0.28571428571428575,
        -0.8571428571428573,
        0.28571428571428575,
        -0.1785714285714286,
        -0.42857142857142866,
        -0.42857142857142866,
        0.07142857142857144,
        0.21428571428571433,
        -0.4642857142857144,
        0.42857142857142866,
        -0.25,
        0.3214285714285715,
        0.28571428571428575,
        0.10714285714285716,
        0.21428571428571433,
        -0.1785714285714286,
        0.3571428571428572,
        0.10714285714285716,
        -0.6785714285714287,
        -0.9642857142857145,
        -0.1785714285714286,
        0.4642857142857144,
        -0.7857142857142859,
        0.8214285714285715,
        0.28571428571428575,
        0.4642857142857144,
        0.1785714285714286,
        0.7500000000000002,
        -0.39285714285714296,
        0.4642857142857144,
        0.14285714285714288,
        0.3571428571428572,
        -0.25,
        -0.21428571428571433,
        0.5,
        -0.5714285714285715,
        0.21428571428571433,
        0.21428571428571433,
        0.6071428571428572,
        -0.10714285714285716,
        0.5,
        0.21428571428571433,
        -0.07142857142857144,
        0.9642857142857145,
        0.5714285714285715,
        -0.39285714285714296,
        -0.7500000000000002,
        0.21428571428571433,
        0.14285714285714288,
        -0.5357142857142858,
        0.0,
        0.39285714285714296,
        0.642857142857143,
        -0.42857142857142866,
        -0.21428571428571433,
        0.28571428571428575,
        0.0,
        -0.5,
        -0.28571428571428575,
        -0.03571428571428572,
        0.1785714285714286,
        0.0,
        -0.39285714285714296,
        0.7142857142857144,
        0.03571428571428572,
        -0.03571428571428572,
        0.14285714285714288,
        0.642857142857143,
        0.10714285714285716,
        -0.14285714285714288,
        -0.07142857142857144,
        -0.3214285714285715,
        -0.25,
        0.5,
        -0.3571428571428572,
        -0.28571428571428575,
        0.3571428571428572,
        -0.6071428571428572,
        -0.5714285714285715,
        -0.07142857142857144,
        -0.10714285714285716,
        -0.4642857142857144,
        -0.3214285714285715,
        -0.7142857142857144,
        0.642857142857143,
        0.25,
        0.642857142857143,
        -0.07142857142857144,
        0.39285714285714296,
        -0.28571428571428575,
        -0.07142857142857144,
        -0.10714285714285716,
        -0.10714285714285716,
        0.39285714285714296,
        0.21428571428571433,
        -0.42857142857142866,
        0.10714285714285716,
        -0.6785714285714287,
        0.14285714285714288,
        0.5357142857142858,
        -0.5714285714285715,
        0.3571428571428572,
        0.39285714285714296,
        -0.28571428571428575,
        0.28571428571428575,
        0.3571428571428572,
        0.0,
        -0.4642857142857144,
        -0.21428571428571433,
        -0.8214285714285715,
        -0.3214285714285715,
        0.10714285714285716,
        0.1785714285714286,
        -0.25,
        -0.39285714285714296,
        0.03571428571428572,
        0.28571428571428575,
        -0.8571428571428573,
        -0.10714285714285716,
        -0.5357142857142858,
        0.1785714285714286,
        -0.03571428571428572,
        -0.28571428571428575,
        -0.07142857142857144,
        -0.03571428571428572,
        -0.6785714285714287,
        0.5357142857142858,
        0.3214285714285715,
        -0.3571428571428572,
        -0.5357142857142858,
        0.5714285714285715,
        0.6071428571428572,
        0.07142857142857144,
        -0.28571428571428575,
        0.21428571428571433,
        -0.39285714285714296,
        0.6785714285714287,
        -0.03571428571428572,
        -0.8214285714285715,
        0.1785714285714286,
        -0.42857142857142866,
        0.21428571428571433,
        0.0,
        0.7142857142857144,
        -0.42857142857142866,
        -0.14285714285714288,
        -0.3571428571428572,
        -0.3571428571428572,
        0.25,
        0.39285714285714296,
        -0.21428571428571433,
        -0.1785714285714286,
        0.9642857142857145,
        -0.5,
        -0.14285714285714288,
        -0.10714285714285716,
        0.0,
        0.4642857142857144,
        -0.5714285714285715,
        0.14285714285714288,
        -0.3214285714285715,
        -0.03571428571428572,
        0.6071428571428572,
        -0.42857142857142866,
        0.4642857142857144,
        -0.21428571428571433,
        -0.5,
        -0.5714285714285715,
        0.0,
        -0.21428571428571433,
        -0.28571428571428575,
        -0.28571428571428575,
        -0.21428571428571433,
        -0.07142857142857144,
        -0.14285714285714288,
        0.25,
        0.07142857142857144,
        0.1785714285714286,
        -0.07142857142857144,
        0.07142857142857144,
        -0.7142857142857144,
        0.3214285714285715,
        -0.42857142857142866,
        -0.07142857142857144,
        -0.42857142857142866,
        -0.10714285714285716,
        -0.5714285714285715,
        -0.21428571428571433,
        -0.6785714285714287,
        -0.25,
        0.0,
        -0.3214285714285715,
        0.07142857142857144,
        0.1785714285714286,
        0.5357142857142858,
        0.03571428571428572,
        0.1785714285714286,
        0.3214285714285715,
        0.42857142857142866,
        0.1785714285714286,
        -0.5,
        0.0,
        0.8571428571428573,
        0.28571428571428575,
        -0.07142857142857144,
        0.21428571428571433,
        0.03571428571428572,
        -0.642857142857143,
        -0.5357142857142858,
        0.28571428571428575,
        0.3571428571428572,
        -0.28571428571428575,
        -0.3214285714285715,
        -0.3571428571428572,
        -0.28571428571428575,
        0.03571428571428572,
        0.3571428571428572,
        -0.8928571428571429,
        0.3571428571428572,
        -0.07142857142857144,
        -0.21428571428571433,
        -0.39285714285714296,
        0.3214285714285715,
        -0.4642857142857144,
        -0.5357142857142858,
        0.3214285714285715,
        0.7500000000000002,
        -0.5357142857142858,
        -1.0,
        -0.39285714285714296,
        0.14285714285714288,
        0.03571428571428572,
        -0.5357142857142858,
        -0.21428571428571433,
        -0.42857142857142866,
        0.8571428571428573,
        0.39285714285714296,
        0.8214285714285715,
        0.6071428571428572,
        -0.3214285714285715,
        0.7142857142857144,
        0.25,
        0.3571428571428572,
        -0.8214285714285715,
        -0.14285714285714288,
        -0.3214285714285715,
        0.3571428571428572,
        0.6071428571428572,
        0.7857142857142859,
        0.10714285714285716,
        0.14285714285714288,
        -0.642857142857143,
        0.21428571428571433,
        0.3214285714285715,
        -0.8571428571428573,
        -0.5714285714285715,
        0.642857142857143,
        -0.14285714285714288,
        -0.5714285714285715,
        -0.28571428571428575,
        -0.03571428571428572,
        0.1785714285714286,
        -0.3571428571428572,
        -0.8571428571428573,
        0.25,
        -0.03571428571428572,
        -0.21428571428571433,
        -0.5357142857142858,
        0.0,
        -0.03571428571428572,
        -0.5,
        -0.03571428571428572,
        -0.5357142857142858,
        -0.3571428571428572,
        -0.1785714285714286,
        -0.1785714285714286,
        -0.03571428571428572,
        0.642857142857143,
        0.0,
        0.0,
        -0.4642857142857144,
        0.1785714285714286,
        0.0,
        -0.07142857142857144,
        -0.3571428571428572,
        0.8928571428571429,
        -0.39285714285714296,
        -0.1785714285714286,
        0.28571428571428575,
        -0.5714285714285715,
        0.07142857142857144,
        -0.10714285714285716,
        0.39285714285714296,
        -0.07142857142857144,
        -0.6071428571428572,
        0.3214285714285715,
        -0.5,
        -0.6071428571428572,
        -0.7142857142857144,
        0.10714285714285716,
        0.642857142857143,
        -0.8571428571428573,
        0.5,
        -0.42857142857142866,
        0.39285714285714296,
        0.0,
        -0.7500000000000002,
        -0.4642857142857144,
        -0.1785714285714286,
        0.7500000000000002,
        -0.3214285714285715,
        -0.21428571428571433,
        -0.7857142857142859,
        -0.07142857142857144,
        -0.39285714285714296,
        0.42857142857142866,
        0.0,
        -0.1785714285714286,
        -0.1785714285714286,
        0.21428571428571433,
        0.1785714285714286,
        -0.7142857142857144,
        -0.07142857142857144,
        0.10714285714285716,
        0.6071428571428572,
        -0.3571428571428572,
        -0.39285714285714296,
        -0.10714285714285716,
        0.42857142857142866,
        0.8571428571428573,
        -0.642857142857143,
        -0.28571428571428575,
        0.4642857142857144,
        0.10714285714285716,
        -0.28571428571428575,
        0.07142857142857144,
        0.7500000000000002,
        0.10714285714285716,
        0.03571428571428572,
        0.7857142857142859,
        -0.642857142857143,
        -0.5714285714285715,
        -0.8571428571428573,
        0.07142857142857144,
        -0.10714285714285716,
        -0.14285714285714288,
        0.28571428571428575,
        -0.3214285714285715,
        0.39285714285714296,
        0.07142857142857144,
        -0.07142857142857144,
        0.42857142857142866,
        -0.3571428571428572,
        -0.7857142857142859,
        0.0,
        -0.5,
        -0.5714285714285715,
        -0.28571428571428575,
        -0.10714285714285716,
        -0.7142857142857144,
        -0.5,
        -0.07142857142857144,
        0.7142857142857144,
        -0.07142857142857144,
        -0.14285714285714288,
        0.21428571428571433,
        0.14285714285714288,
        0.6071428571428572,
        -0.1785714285714286,
        0.25,
        0.5357142857142858,
        0.42857142857142866,
        0.03571428571428572,
        0.03571428571428572,
        0.3214285714285715,
        0.5357142857142858,
        0.10714285714285716,
        0.642857142857143,
        0.3571428571428572,
        0.28571428571428575,
        0.1785714285714286,
        -0.5,
        0.3214285714285715,
        -0.25,
        -0.7857142857142859,
        -0.03571428571428572,
        0.3214285714285715,
        0.14285714285714288,
        -0.5,
        -0.03571428571428572,
        0.8214285714285715,
        -0.14285714285714288,
        0.3571428571428572,
        -0.07142857142857144,
        -0.14285714285714288,
        -0.4642857142857144,
        0.3571428571428572,
        -0.5357142857142858,
        -0.8928571428571429,
        0.1785714285714286,
        -0.7142857142857144,
        0.4642857142857144,
        0.25,
        0.5357142857142858,
        0.0,
        0.10714285714285716,
        -0.3214285714285715,
        0.7857142857142859,
        -0.21428571428571433,
        -0.5,
        -0.4642857142857144,
        0.21428571428571433,
        -0.1785714285714286,
        0.4642857142857144,
        0.25,
        0.03571428571428572,
        -0.07142857142857144,
        0.5714285714285715,
        0.5,
        -0.21428571428571433,
        0.6071428571428572,
        0.3571428571428572,
        0.7500000000000002,
        -0.03571428571428572,
        0.7857142857142859,
        -0.39285714285714296,
        0.6071428571428572,
        0.10714285714285716,
        -0.28571428571428575,
        -0.14285714285714288,
        -0.5,
        -0.3214285714285715,
        0.5357142857142858,
        0.4642857142857144,
        0.28571428571428575,
        0.28571428571428575,
        -0.39285714285714296,
        0.14285714285714288,
        0.14285714285714288,
        0.28571428571428575,
        0.7142857142857144,
        0.0,
        -0.28571428571428575,
        0.14285714285714288,
        0.642857142857143,
        0.14285714285714288,
        -0.07142857142857144,
        -0.1785714285714286,
        -0.03571428571428572,
        -0.5,
        0.1785714285714286,
        -0.642857142857143,
        0.07142857142857144,
        0.39285714285714296,
        0.642857142857143,
        0.21428571428571433,
        0.6785714285714287,
        0.1785714285714286,
        -0.28571428571428575,
        0.3571428571428572,
        -0.21428571428571433,
        0.7142857142857144,
        -0.14285714285714288,
        0.4642857142857144,
        0.07142857142857144,
        0.0,
        -0.5357142857142858,
        0.28571428571428575,
        0.14285714285714288,
        0.39285714285714296,
        0.42857142857142866,
        -0.1785714285714286,
        -0.4642857142857144,
        -0.1785714285714286,
        -0.3571428571428572,
        0.10714285714285716,
        0.07142857142857144,
        0.14285714285714288,
        0.03571428571428572,
        0.21428571428571433,
        0.39285714285714296,
        0.07142857142857144,
        0.0,
        -0.10714285714285716,
        0.0,
        0.3214285714285715,
        0.5714285714285715,
        0.03571428571428572,
        0.42857142857142866,
        -0.4642857142857144,
        -0.3571428571428572,
        0.0,
        0.21428571428571433,
        0.07142857142857144,
        0.28571428571428575,
        0.39285714285714296,
        -0.28571428571428575,
        0.03571428571428572,
        -0.14285714285714288,
        -0.07142857142857144,
        -0.1785714285714286,
        -0.28571428571428575,
        -0.1785714285714286,
        0.42857142857142866,
        0.42857142857142866,
        -0.10714285714285716,
        -0.5357142857142858,
        -0.7142857142857144,
        0.6785714285714287,
        0.14285714285714288,
        0.14285714285714288,
        -0.6785714285714287,
        0.39285714285714296,
        -0.39285714285714296,
        -0.3214285714285715,
        0.4642857142857144,
        -0.6071428571428572,
        0.21428571428571433,
        0.7500000000000002,
        0.3214285714285715,
        0.14285714285714288,
        -0.25,
        0.39285714285714296,
        -0.39285714285714296,
        0.28571428571428575,
        -0.4642857142857144,
        0.3214285714285715,
        -0.07142857142857144,
        -0.6785714285714287,
        -0.642857142857143,
        0.7500000000000002,
        -0.7142857142857144,
        0.8214285714285715,
        -0.5357142857142858,
        0.21428571428571433,
        0.39285714285714296,
        0.03571428571428572,
        -0.3571428571428572,
        -0.3571428571428572,
        0.642857142857143,
        -0.3214285714285715,
        0.28571428571428575,
        -0.03571428571428572,
        0.07142857142857144,
        -0.03571428571428572,
        0.8214285714285715,
        0.07142857142857144,
        -0.3571428571428572,
        0.0,
        0.10714285714285716,
        -0.7142857142857144,
        0.28571428571428575,
        -0.3571428571428572,
        -0.14285714285714288,
        -0.25,
        0.5357142857142858,
        -0.3571428571428572,
        -0.14285714285714288,
        0.0,
        0.5714285714285715,
        0.10714285714285716,
        0.07142857142857144,
        -0.1785714285714286,
        0.25,
        0.14285714285714288,
        -0.14285714285714288,
        0.10714285714285716,
        0.5357142857142858,
        0.03571428571428572,
        -0.42857142857142866,
        0.0,
        0.07142857142857144,
        -0.21428571428571433,
        -0.39285714285714296,
        -0.1785714285714286,
        0.10714285714285716,
        -0.14285714285714288,
        -0.5357142857142858,
        -0.6785714285714287,
        -0.14285714285714288,
        0.5,
        0.0,
        0.5714285714285715,
        -0.25,
        -0.5714285714285715,
        -0.7500000000000002,
        0.28571428571428575,
        -0.03571428571428572,
        -0.42857142857142866,
        -0.14285714285714288,
        -0.5,
        0.07142857142857144,
        0.5714285714285715,
        0.10714285714285716,
        0.3571428571428572,
        0.642857142857143,
        -0.5,
        -0.25,
        -0.39285714285714296,
        -0.14285714285714288,
        0.21428571428571433,
        0.7142857142857144,
        0.4642857142857144,
        -0.10714285714285716,
        0.0,
        -0.39285714285714296,
        -0.5714285714285715,
        0.4642857142857144,
        0.10714285714285716,
        -0.21428571428571433,
        -0.21428571428571433,
        0.14285714285714288,
        -0.10714285714285716,
        -0.42857142857142866,
        -0.14285714285714288,
        -0.3214285714285715,
        -0.1785714285714286,
        -0.07142857142857144,
        0.10714285714285716,
        0.07142857142857144,
        -0.3214285714285715,
        -0.39285714285714296,
        -0.14285714285714288,
        -0.07142857142857144,
        -0.21428571428571433,
        0.3571428571428572,
        0.4642857142857144,
        0.0,
        -0.14285714285714288,
        -0.6785714285714287,
        0.7857142857142859,
        0.14285714285714288,
        -0.21428571428571433,
        -0.39285714285714296,
        -0.21428571428571433,
        0.14285714285714288,
        0.7142857142857144,
        -0.3571428571428572,
        0.10714285714285716,
        -0.42857142857142866,
        0.6785714285714287,
        0.4642857142857144,
        -0.10714285714285716,
        -0.39285714285714296,
        -0.5,
        0.14285714285714288,
        -0.14285714285714288,
        0.39285714285714296,
        0.6071428571428572,
        0.1785714285714286,
        0.6785714285714287,
        0.3214285714285715,
        0.42857142857142866,
        -0.8571428571428573,
        0.3571428571428572,
        0.5,
        -0.1785714285714286
      ],
      "mean": -0.0022142857142857103,
      "std": 0.40412439360944813
    },
    "depth_hierarchy": {
      "rho": [
        -0.28571428571428575,
        0.0,
        -0.3571428571428572,
        0.14285714285714288,
        -0.42857142857142866,
        -0.03571428571428572,
        0.07142857142857144,
        0.1785714285714286,
        -0.42857142857142866,
        0.7500000000000002,
        -0.1785714285714286,
        0.5357142857142858,
        -0.5357142857142858,
        0.14285714285714288,
        -0.8571428571428573,
        -0.3214285714285715,
        0.642857142857143,
        -0.14285714285714288,
        0.7500000000000002,
        0.42857142857142866,
        0.03571428571428572,
        -0.5357142857142858,
        0.3571428571428572,
        -0.4642857142857144,
        0.10714285714285716,
        -0.10714285714285716,
        -0.3214285714285715,
        -0.5714285714285715,
        0.14285714285714288,
        0.42857142857142866,
        -0.03571428571428572,
        0.28571428571428575,
        -0.7500000000000002,
        0.42857142857142866,
        0.28571428571428575,
        -0.5357142857142858,
        -0.21428571428571433,
        0.21428571428571433,
        0.5714285714285715,
        -0.39285714285714296,
        -0.7142857142857144,
        -0.10714285714285716,
        0.14285714285714288,
        0.0,
        -0.10714285714285716,
        -0.28571428571428575,
        0.3571428571428572,
        0.3571428571428572,
        -0.21428571428571433,
        -0.07142857142857144,
        0.3214285714285715,
        0.07142857142857144,
        0.14285714285714288,
        0.642857142857143,
        -0.21428571428571433,
        0.6785714285714287,
        -0.21428571428571433,
        -0.642857142857143,
        -0.03571428571428572,
        -0.7142857142857144,
        0.07142857142857144,
        -0.4642857142857144,
        -0.5,
        0.28571428571428575,
        0.4642857142857144,
        0.7500000000000002,
        0.03571428571428572,
        0.0,
        -0.39285714285714296,
        -0.3214285714285715,
        0.07142857142857144,
        0.28571428571428575,
        -0.07142857142857144,
        0.1785714285714286,
        -0.8928571428571429,
        0.14285714285714288,
        -0.07142857142857144,
        -0.25,
        -0.07142857142857144,
        0.4642857142857144,
        -0.03571428571428572,
        0.642857142857143,
        0.7142857142857144,
        0.3571428571428572,
        0.3214285714285715,
        -0.39285714285714296,
        -0.3214285714285715,
        -0.42857142857142866,
        -0.1785714285714286,
        0.1785714285714286,
        -0.642857142857143,
        0.7500000000000002,
        0.14285714285714288,
        -0.07142857142857144,
        -0.5714285714285715,
        -0.7142857142857144,
        0.21428571428571433,
        0.10714285714285716,
        0.0,
        -0.1785714285714286,
        -0.5,
        -0.14285714285714288,
        0.8571428571428573,
        0.5714285714285715,
        0.0,
        -0.5,
        0.3571428571428572,
        -0.42857142857142866,
        0.5357142857142858,
        -0.21428571428571433,
        0.5,
        -0.7142857142857144,
        -0.6071428571428572,
        -0.21428571428571433,
        0.25,
        0.642857142857143,
        0.6785714285714287,
        0.39285714285714296,
        -0.21428571428571433,
        0.0,
        0.28571428571428575,
        0.5357142857142858,
        0.3571428571428572,
        -0.642857142857143,
        0.5357142857142858,
        -0.14285714285714288,
        0.21428571428571433,
        0.14285714285714288,
        0.21428571428571433,
        0.07142857142857144,
        0.642857142857143,
        0.10714285714285716,
        0.0,
        -0.1785714285714286,
        -0.21428571428571433,
        -0.5,
        0.21428571428571433,
        0.07142857142857144,
        0.0,
        -0.10714285714285716,
        -0.5,
        -0.28571428571428575,
        -0.3571428571428572,
        0.4642857142857144,
        -0.1785714285714286,
        -0.39285714285714296,
        -0.3571428571428572,
        0.0,
        0.1785714285714286,
        0.4642857142857144,
        0.6785714285714287,
        -0.10714285714285716,
        0.10714285714285716,
        0.10714285714285716,
        -0.21428571428571433,
        -0.7142857142857144,
        0.642857142857143,
        0.4642857142857144,
        -0.03571428571428572,
        -0.3571428571428572,
        -0.10714285714285716,
        -0.03571428571428572,
        -0.3571428571428572,
        0.0,
        0.42857142857142866,
        -0.07142857142857144,
        -0.3571428571428572,
        -0.10714285714285716,
        0.642857142857143,
        0.14285714285714288,
        -0.3214285714285715,
        0.5357142857142858,
        -0.03571428571428572,
        -0.5,
        -0.14285714285714288,
        0.3214285714285715,
        0.7500000000000002,
        0.3571428571428572,
        0.6785714285714287,
        -0.8571428571428573,
        -0.07142857142857144,
        0.03571428571428572,
        -0.21428571428571433,
        0.07142857142857144,
        -0.14285714285714288,
        -0.21428571428571433,
        0.0,
        0.3214285714285715,
        0.14285714285714288,
        0.0,
        0.42857142857142866,
        0.07142857142857144,
        0.14285714285714288,
        -0.5357142857142858,
        -0.39285714285714296,
        -0.3571428571428572,
        0.03571428571428572,
        0.03571428571428572,
        0.3214285714285715,
        0.4642857142857144,
        -0.14285714285714288,
        -0.42857142857142866,
        -0.14285714285714288,
        0.10714285714285716,
        -0.642857142857143,
        0.4642857142857144,
        0.6071428571428572,
        -0.3571428571428572,
        0.1785714285714286,
        0.0,
        0.5714285714285715,
        0.0,
        0.28571428571428575,
        0.07142857142857144,
        0.21428571428571433,
        0.5714285714285715,
        0.7500000000000002,
        0.21428571428571433,
        0.3571428571428572,
        0.3571428571428572,
        -0.642857142857143,
        -0.03571428571428572,
        0.42857142857142866,
        -0.5,
        -0.07142857142857144,
        -0.28571428571428575,
        0.10714285714285716,
        0.6071428571428572,
        -0.6071428571428572,
        0.03571428571428572,
        0.3571428571428572,
        0.3571428571428572,
        -0.14285714285714288,
        0.5714285714285715,
        -0.7500000000000002,
        0.0,
        0.39285714285714296,
        0.7142857142857144,
        0.42857142857142866,
        0.6785714285714287,
        0.03571428571428572,
        -0.14285714285714288,
        -0.1785714285714286,
        -0.07142857142857144,
        0.07142857142857144,
        0.4642857142857144,
        0.28571428571428575,
        0.4642857142857144,
        -0.39285714285714296,
        0.5,
        -0.10714285714285716,
        -0.07142857142857144,
        0.3571428571428572,
        0.28571428571428575,
        0.1785714285714286,
        0.10714285714285716,
        0.1785714285714286,
        0.03571428571428572,
        0.25,
        0.39285714285714296,
        -0.3571428571428572,
        -0.5714285714285715,
        0.5357142857142858,
        0.42857142857142866,
        -0.07142857142857144,
        0.07142857142857144,
        -0.39285714285714296,
        0.1785714285714286,
        0.5357142857142858,
        0.1785714285714286,
        0.642857142857143,
        -0.3571428571428572,
        -0.8571428571428573,
        0.8571428571428573,
        0.21428571428571433,
        0.5357142857142858,
        0.8214285714285715,
        0.3214285714285715,
        0.10714285714285716,
        -0.3214285714285715,
        -0.5,
        0.42857142857142866,
        -0.3214285714285715,
        0.5,
        0.28571428571428575,
        -0.642857142857143,
        -0.39285714285714296,
        0.3214285714285715,
        -0.07142857142857144,
        0.14285714285714288,
        0.14285714285714288,
        -0.07142857142857144,
        0.3214285714285715,
        0.6785714285714287,
        0.07142857142857144,
        0.39285714285714296,
        -0.642857142857143,
        -0.7857142857142859,
        -0.42857142857142866,
        -0.14285714285714288,
        -0.3214285714285715,
        0.1785714285714286,
        -0.4642857142857144,
        -0.1785714285714286,
        0.6071428571428572,
        -0.28571428571428575,
        0.42857142857142866,
        -0.10714285714285716,
        0.28571428571428575,
        -0.21428571428571433,
        -0.1785714285714286,
        0.10714285714285716,
        -0.3214285714285715,
        -0.21428571428571433,
        0.3214285714285715,
        0.07142857142857144,
        -0.28571428571428575,
        -0.3214285714285715,
        0.3571428571428572,
        0.42857142857142866,
        -0.21428571428571433,
        -0.7500000000000002,
        -0.14285714285714288,
        0.10714285714285716,
        -0.28571428571428575,
        -0.10714285714285716,
        0.42857142857142866,
        -0.42857142857142866,
        -0.39285714285714296,
        -0.28571428571428575,
        0.03571428571428572,
        -0.10714285714285716,
        -0.07142857142857144,
        0.0,
        -0.10714285714285716,
        0.42857142857142866,
        -0.42857142857142866,
        0.28571428571428575,
        -0.14285714285714288,
        0.7142857142857144,
        -0.5714285714285715,
        0.21428571428571433,
        0.25,
        0.5,
        -0.28571428571428575,
        -0.1785714285714286,
        0.21428571428571433,
        0.39285714285714296,
        -0.10714285714285716,
        -0.3571428571428572,
        0.1785714285714286,
        -0.28571428571428575,
        0.0,
        0.1785714285714286,
        0.6071428571428572,
        -0.25,
        -0.25,
        0.4642857142857144,
        -0.3571428571428572,
        -0.42857142857142866,
        0.14285714285714288,
        0.6071428571428572,
        -0.3214285714285715,
        -0.10714285714285716,
        -0.03571428571428572,
        -0.07142857142857144,
        0.39285714285714296,
        -0.5357142857142858,
        -0.5714285714285715,
        0.0,
        -0.21428571428571433,
        -0.3571428571428572,
        -0.10714285714285716,
        0.0,
        -0.3214285714285715,
        -0.28571428571428575,
        -0.10714285714285716,
        -0.14285714285714288,
        -0.6071428571428572,
        0.03571428571428572,
        0.14285714285714288,
        -0.8214285714285715,
        0.8571428571428573,
        0.8571428571428573,
        -0.28571428571428575,
        -0.25,
        -0.42857142857142866,
        -0.07142857142857144,
        0.07142857142857144,
        0.7857142857142859,
        0.1785714285714286,
        0.3214285714285715,
        -0.03571428571428572,
        0.6071428571428572,
        -0.25,
        0.21428571428571433,
        0.07142857142857144,
        -0.25,
        -0.3571428571428572,
        0.8571428571428573,
        0.25,
        0.1785714285714286,
        0.3214285714285715,
        0.5357142857142858,
        0.07142857142857144,
        -0.07142857142857144,
        0.21428571428571433,
        0.28571428571428575,
        -0.5357142857142858,
        0.07142857142857144,
        -0.28571428571428575,
        -0.7857142857142859,
        0.14285714285714288,
        -0.5,
        -0.03571428571428572,
        0.28571428571428575,
        -0.21428571428571433,
        -0.42857142857142866,
        0.4642857142857144,
        -0.1785714285714286,
        0.14285714285714288,
        -0.07142857142857144,
        -0.8571428571428573,
        -0.3571428571428572,
        0.0,
        0.14285714285714288,
        -0.7857142857142859,
        0.5714285714285715,
        0.10714285714285716,
        0.642857142857143,
        0.07142857142857144,
        0.03571428571428572,
        0.25,
        -0.03571428571428572,
        -0.10714285714285716,
        -0.07142857142857144,
        -0.25,
        0.3571428571428572,
        -0.1785714285714286,
        0.03571428571428572,
        0.21428571428571433,
        -0.6071428571428572,
        0.39285714285714296,
        -0.3214285714285715,
        0.5714285714285715,
        0.1785714285714286,
        -0.3214285714285715,
        -0.14285714285714288,
        0.3571428571428572,
        -0.21428571428571433,
        0.14285714285714288,
        0.07142857142857144,
        -0.5357142857142858,
        -0.6785714285714287,
        -0.5357142857142858,
        -0.1785714285714286,
        -0.7500000000000002,
        0.14285714285714288,
        -0.07142857142857144,
        -0.5357142857142858,
        -0.4642857142857144,
        0.03571428571428572,
        -0.14285714285714288,
        -0.14285714285714288,
        -0.28571428571428575,
        -0.6785714285714287,
        -0.10714285714285716,
        -0.39285714285714296,
        0.0,
        -0.3571428571428572,
        0.07142857142857144,
        -0.5,
        -0.14285714285714288,
        0.03571428571428572,
        0.9642857142857145,
        -0.1785714285714286,
        0.25,
        0.42857142857142866,
        -0.25,
        -0.6071428571428572,
        0.42857142857142866,
        0.42857142857142866,
        -0.25,
        0.642857142857143,
        0.07142857142857144,
        -0.1785714285714286,
        -0.3571428571428572,
        0.25,
        -0.21428571428571433,
        0.3214285714285715,
        0.1785714285714286,
        -0.5714285714285715,
        0.0,
        -0.10714285714285716,
        -0.5,
        0.42857142857142866,
        -0.21428571428571433,
        0.03571428571428572,
        -0.07142857142857144,
        -0.03571428571428572,
        0.42857142857142866,
        0.21428571428571433,
        0.25,
        0.14285714285714288,
        0.8214285714285715,
        0.03571428571428572,
        -0.03571428571428572,
        -0.10714285714285716,
        -0.39285714285714296,
        -0.21428571428571433,
        0.8571428571428573,
        -0.6071428571428572,
        -0.3214285714285715,
        0.21428571428571433,
        -0.3214285714285715,
        0.3214285714285715,
        0.42857142857142866,
        0.8571428571428573,
        -0.1785714285714286,
        -0.28571428571428575,
        0.4642857142857144,
        0.28571428571428575,
        0.25,
        -0.3571428571428572,
        -0.25,
        -0.10714285714285716,
        -0.10714285714285716,
        0.14285714285714288,
        0.4642857142857144,
        0.9642857142857145,
        0.28571428571428575,
        0.3214285714285715,
        -0.21428571428571433,
        0.3214285714285715,
        0.6785714285714287,
        -0.3571428571428572,
        -0.21428571428571433,
        0.8571428571428573,
        0.0,
        -0.5357142857142858,
        -0.3214285714285715,
        -0.21428571428571433,
        0.42857142857142866,
        0.39285714285714296,
        0.4642857142857144,
        0.07142857142857144,
        0.07142857142857144,
        -0.6785714285714287,
        0.7142857142857144,
        -0.14285714285714288,
        -0.6071428571428572,
        -0.42857142857142866,
        0.25,
        -0.1785714285714286,
        0.0,
        -0.14285714285714288,
        0.8214285714285715,
        -0.03571428571428572,
        -0.10714285714285716,
        0.10714285714285716,
        0.3571428571428572,
        0.0,
        -0.14285714285714288,
        0.28571428571428575,
        0.642857142857143,
        0.10714285714285716,
        0.07142857142857144,
        -0.10714285714285716,
        -0.4642857142857144,
        -0.10714285714285716,
        -0.42857142857142866,
        -0.21428571428571433,
        -0.5714285714285715,
        -0.25,
        -0.39285714285714296,
        -0.25,
        -0.8928571428571429,
        0.0,
        0.5714285714285715,
        -0.14285714285714288,
        0.6071428571428572,
        -0.25,
        0.03571428571428572,
        0.7142857142857144,
        0.42857142857142866,
        0.10714285714285716,
        0.3571428571428572,
        -0.5714285714285715,
        0.3571428571428572,
        0.4642857142857144,
        0.42857142857142866,
        -0.3214285714285715,
        -0.3571428571428572,
        0.3571428571428572,
        0.6071428571428572,
        -0.1785714285714286,
        -0.6785714285714287,
        0.21428571428571433,
        -0.4642857142857144,
        -0.07142857142857144,
        0.39285714285714296,
        0.10714285714285716,
        0.21428571428571433,
        -0.14285714285714288,
        0.5714285714285715,
        -0.25,
        -0.39285714285714296,
        -0.14285714285714288,
        -0.21428571428571433,
        0.25,
        0.7142857142857144,
        0.6071428571428572,
        0.28571428571428575,
        -0.7857142857142859,
        0.42857142857142866,
        0.14285714285714288,
        -0.07142857142857144,
        -0.642857142857143,
        -0.14285714285714288,
        -0.03571428571428572,
        0.03571428571428572,
        0.3214285714285715,
        -0.4642857142857144,
        0.7500000000000002,
        0.07142857142857144,
        -0.642857142857143,
        -0.3571428571428572,
        0.21428571428571433,
        0.0,
        0.7857142857142859,
        0.03571428571428572,
        -0.42857142857142866,
        0.3214285714285715,
        -0.3571428571428572,
        0.3571428571428572,
        0.03571428571428572,
        0.42857142857142866,
        -0.8571428571428573,
        0.0,
        0.7142857142857144,
        -0.3571428571428572,
        0.8571428571428573,
        0.07142857142857144,
        0.5,
        -0.4642857142857144,
        0.7142857142857144,
        -0.3214285714285715,
        -0.14285714285714288,
        -0.28571428571428575,
        -0.3571428571428572,
        -0.6785714285714287,
        0.3571428571428572,
        -0.21428571428571433,
        -0.14285714285714288,
        0.3571428571428572,
        0.14285714285714288,
        -0.25,
        -0.5357142857142858,
        -0.1785714285714286,
        -0.10714285714285716,
        -0.3571428571428572,
        0.642857142857143,
        -0.1785714285714286,
        -0.6071428571428572,
        -0.8928571428571429,
        -0.25,
        -0.25,
        0.07142857142857144,
        -0.07142857142857144,
        -0.42857142857142866,
        0.5,
        0.03571428571428572,
        0.14285714285714288,
        -0.7857142857142859,
        0.25,
        0.39285714285714296,
        0.1785714285714286,
        -0.39285714285714296,
        0.28571428571428575,
        -0.8214285714285715,
        0.07142857142857144,
        0.28571428571428575,
        0.0,
        0.5357142857142858,
        0.3214285714285715,
        0.28571428571428575,
        0.14285714285714288,
        -0.10714285714285716,
        -0.9285714285714288,
        -0.1785714285714286,
        0.25,
        0.14285714285714288,
        -0.1785714285714286,
        0.07142857142857144,
        -0.28571428571428575,
        -0.3214285714285715,
        -0.3571428571428572,
        0.28571428571428575,
        0.0,
        0.5,
        -0.1785714285714286,
        0.10714285714285716,
        0.39285714285714296,
        0.5,
        -0.6071428571428572,
        0.21428571428571433,
        -0.3214285714285715,
        -0.7142857142857144,
        -0.10714285714285716,
        0.7142857142857144,
        -0.14285714285714288,
        0.5,
        0.21428571428571433,
        0.10714285714285716,
        0.42857142857142866,
        0.10714285714285716,
        0.10714285714285716,
        0.10714285714285716,
        -0.7500000000000002,
        -0.39285714285714296,
        0.6071428571428572,
        -0.3214285714285715,
        -0.3571428571428572,
        0.14285714285714288,
        0.5714285714285715,
        0.5714285714285715,
        0.3214285714285715,
        -0.3571428571428572,
        -0.14285714285714288,
        -0.7857142857142859,
        -0.1785714285714286,
        -0.07142857142857144,
        0.07142857142857144,
        -0.14285714285714288,
        -0.14285714285714288,
        -0.07142857142857144,
        -0.42857142857142866,
        0.0,
        -0.42857142857142866,
        0.3214285714285715,
        -0.28571428571428575,
        0.07142857142857144,
        -0.6071428571428572,
        0.42857142857142866,
        0.10714285714285716,
        0.642857142857143,
        0.642857142857143,
        -0.42857142857142866,
        -0.28571428571428575,
        0.10714285714285716,
        -0.14285714285714288,
        -0.42857142857142866,
        0.0,
        0.1785714285714286,
        -0.21428571428571433,
        -0.6071428571428572,
        0.28571428571428575,
        0.1785714285714286,
        0.03571428571428572,
        0.0,
        0.21428571428571433,
        -0.25,
        -0.642857142857143,
        -0.14285714285714288,
        0.1785714285714286,
        -0.1785714285714286,
        0.5357142857142858,
        -0.3214285714285715,
        0.5714285714285715,
        0.3214285714285715,
        -0.5357142857142858,
        0.39285714285714296,
        -0.07142857142857144,
        0.21428571428571433,
        -0.21428571428571433,
        0.4642857142857144,
        0.10714285714285716,
        0.10714285714285716,
        0.39285714285714296,
        0.42857142857142866,
        -0.6785714285714287,
        0.6785714285714287,
        -0.8214285714285715,
        -0.07142857142857144,
        -0.3571428571428572,
        0.25,
        -0.14285714285714288,
        0.1785714285714286,
        0.8571428571428573,
        0.5714285714285715,
        0.5714285714285715,
        -0.21428571428571433,
        -0.1785714285714286,
        -0.3214285714285715,
        0.0,
        -0.3214285714285715,
        0.39285714285714296,
        -0.3214285714285715,
        -0.28571428571428575,
        -0.25,
        0.5357142857142858,
        0.5,
        0.3571428571428572,
        0.0,
        0.0,
        -0.5714285714285715,
        0.3571428571428572,
        -0.7142857142857144,
        0.0,
        0.14285714285714288,
        -0.3571428571428572,
        -0.7142857142857144,
        -0.4642857142857144,
        0.03571428571428572,
        -0.42857142857142866,
        0.4642857142857144,
        0.7500000000000002,
        0.1785714285714286,
        -0.5714285714285715,
        -0.6785714285714287,
        -0.7142857142857144,
        -0.10714285714285716,
        -0.7500000000000002,
        -0.25,
        -0.21428571428571433,
        -0.28571428571428575,
        0.6071428571428572,
        -0.07142857142857144,
        0.8214285714285715,
        0.21428571428571433,
        -0.4642857142857144,
        0.10714285714285716,
        -0.5714285714285715,
        0.14285714285714288,
        0.3571428571428572,
        0.03571428571428572,
        0.03571428571428572,
        0.03571428571428572,
        0.5357142857142858,
